//Numpy array shape [44, 32]
//Min -0.812500000000
//Max 0.625000000000
//Number of zeros 422

#ifndef W2_H_
#define W2_H_

#ifndef __SYNTHESIS__
weight2_t w2[1408];
#else
weight2_t w2[1408] = {0.0000, -0.0625, 0.0625, -0.0625, 0.0625, 0.0625, -0.1250, 0.0000, -0.0625, 0.0000, -0.0625, 0.0000, 0.0000, -0.0625, 0.0000, -0.1250, 0.0000, 0.0625, 0.0000, -0.0625, -0.0625, -0.0625, 0.0000, 0.0000, 0.0625, -0.0625, -0.1250, 0.0625, -0.0625, 0.0000, 0.0625, -0.0625, 0.0000, 0.0625, 0.0000, 0.0000, 0.0000, 0.0000, -0.0625, 0.0000, 0.0000, 0.0000, 0.0000, 0.0000, 0.0000, 0.0000, 0.0000, 0.0000, 0.0000, 0.0000, 0.0000, 0.0000, 0.0000, 0.0000, 0.0000, 0.0000, 0.0000, 0.0000, 0.0000, 0.0000, 0.0000, 0.0000, 0.0000, 0.0000, 0.0000, 0.0000, 0.0000, 0.0000, 0.0000, 0.0000, 0.0000, 0.0000, 0.0000, 0.0000, -0.0625, 0.0000, 0.0000, 0.0000, 0.0000, 0.0625, 0.0000, 0.0625, 0.0000, -0.0625, 0.0000, -0.0625, 0.0000, 0.0625, 0.0625, 0.0000, 0.0000, 0.0000, 0.0000, 0.0000, 0.0000, 0.0625, 0.0000, 0.0000, -0.0625, 0.0000, -0.0625, -0.0625, 0.0625, 0.0000, 0.0000, -0.0625, 0.0000, 0.0000, 0.0625, 0.0000, 0.0000, 0.1250, -0.0625, 0.0000, -0.0625, -0.0625, -0.0625, 0.0625, 0.0625, 0.0000, -0.0625, 0.0000, 0.0625, -0.0625, 0.0625, 0.0625, -0.0625, 0.0000, 0.0000, 0.0625, 0.0000, 0.0625, 0.0000, 0.0000, -0.0625, 0.0000, 0.0000, -0.0625, 0.0000, 0.0000, 0.0000, 0.0000, 0.0000, 0.0000, 0.0000, 0.0000, -0.0625, 0.0000, 0.0000, 0.0000, 0.0625, 0.0000, 0.0000, 0.0000, -0.0625, 0.0625, 0.0000, 0.0000, 0.0625, 0.0000, 0.0000, 0.0625, 0.0000, 0.0000, 0.0000, 0.0000, 0.0000, 0.0000, 0.0000, 0.0000, 0.0000, 0.0000, 0.0000, 0.0000, 0.0000, 0.0000, 0.0000, 0.0000, 0.0000, 0.0000, 0.0000, 0.0000, 0.0000, -0.0625, 0.0000, 0.0000, 0.0000, 0.0000, 0.0000, 0.0000, 0.0000, 0.0000, 0.0625, 0.0625, 0.0000, 0.0000, 0.0625, 0.0625, 0.0000, 0.0625, 0.0000, -0.4375, -0.0625, 0.0625, 0.3125, 0.0000, 0.1875, 0.0000, 0.1250, 0.1250, 0.0000, -0.0625, -0.1875, -0.0625, -0.1250, -0.1250, 0.0625, -0.0625, 0.0000, -0.0625, 0.1250, 0.1875, 0.0000, -0.1250, 0.0000, 0.0625, 0.0000, 0.0000, -0.0625, 0.0625, -0.0625, 0.0000, 0.0000, 0.0000, 0.0000, 0.0000, -0.0625, 0.0000, -0.0625, 0.0000, 0.0000, 0.0000, -0.0625, 0.0000, -0.0625, 0.0000, 0.0625, 0.0625, 0.0000, 0.0000, 0.0000, 0.0625, 0.0000, -0.0625, 0.0625, 0.0625, -0.0625, -0.0625, -0.0625, 0.0000, -0.1250, 0.0625, -0.0625, 0.0000, 0.0000, 0.0000, 0.0000, 0.1250, 0.1875, 0.0000, -0.0625, 0.0000, 0.1250, -0.0625, 0.0000, -0.2500, 0.0000, -0.0625, 0.0000, 0.0625, 0.0625, -0.0625, 0.0000, 0.0000, 0.1250, -0.2500, 0.0000, 0.2500, 0.0000, 0.0000, -0.1875, 0.1875, 0.1250, -0.0625, 0.2500, -0.3125, 0.2500, -0.2500, 0.1250, -0.0625, 0.0625, -0.0625, -0.1250, 0.0625, 0.0000, 0.1250, 0.0625, 0.0000, -0.1250, 0.0000, -0.1250, -0.2500, 0.0625, 0.0625, -0.0625, -0.1250, 0.0625, 0.0625, 0.0000, 0.0625, 0.0625, 0.0000, -0.1875, 0.1875, 0.0000, 0.0625, -0.3125, 0.0000, 0.0625, 0.0000, 0.1250, 0.0000, 0.0000, 0.0000, -0.0625, -0.0625, -0.0625, 0.1250, -0.2500, 0.0000, 0.0000, 0.0000, 0.1250, -0.0625, 0.0000, -0.1250, -0.0625, 0.0000, 0.0625, 0.1250, 0.0625, 0.0625, 0.0000, 0.1250, -0.0625, -0.0625, 0.0000, 0.0000, -0.0625, -0.1250, -0.0625, 0.0625, 0.0000, 0.0625, 0.1250, 0.1250, -0.1875, 0.0625, 0.0000, 0.0625, -0.0625, -0.0625, 0.0000, 0.0000, 0.0625, 0.0000, 0.1250, -0.0625, 0.0625, 0.0000, 0.1250, -0.0625, 0.0000, 0.0625, 0.0000, -0.2500, -0.0625, 0.0625, 0.1250, 0.1875, 0.1250, -0.3125, 0.3125, 0.0000, 0.1875, -0.2500, 0.0625, -0.2500, 0.0625, -0.3125, 0.1250, 0.3125, 0.0625, 0.0000, 0.0625, 0.0000, -0.1250, 0.0625, 0.3750, 0.0625, 0.1250, 0.2500, -0.0625, -0.0625, 0.0625, 0.0625, 0.0000, 0.0000, -0.1875, 0.1250, -0.0625, 0.1250, -0.1875, 0.0625, 0.0000, 0.0625, 0.1250, 0.0000, -0.1250, 0.1250, -0.0625, 0.0000, 0.0000, 0.0625, -0.1250, 0.0000, 0.0000, 0.0000, 0.0000, -0.0625, 0.0625, -0.0625, -0.0625, 0.0625, 0.0000, 0.0000, 0.0000, 0.0625, -0.1250, 0.6250, 0.0000, -0.1250, 0.3125, 0.0625, 0.0000, -0.1875, -0.1250, -0.0625, 0.2500, 0.4375, -0.2500, 0.1250, -0.5000, 0.3125, -0.3125, -0.0625, -0.0625, 0.0000, 0.0000, -0.0625, 0.0625, -0.1250, 0.3750, 0.0000, 0.0000, 0.3125, 0.5000, 0.0625, 0.0000, -0.0625, 0.0625, 0.1250, -0.1875, 0.3750, 0.0000, 0.0000, 0.2500, 0.0000, 0.0000, -0.3125, 0.0000, 0.1250, 0.0625, -0.2500, 0.1250, 0.1250, -0.1250, 0.1875, 0.0625, -0.1875, 0.4375, 0.2500, -0.2500, -0.1875, 0.0000, -0.0625, 0.3125, 0.1250, 0.1875, 0.0625, 0.3750, 0.5625, 0.1875, -0.1250, -0.3125, 0.4375, -0.1250, 0.3750, -0.1250, 0.1875, 0.1875, -0.1250, 0.1875, -0.1250, -0.2500, 0.1250, -0.0625, 0.1875, -0.1875, -0.1250, -0.4375, 0.0625, -0.4375, 0.0625, 0.1875, -0.4375, -0.0625, -0.3750, -0.2500, 0.2500, -0.1250, 0.0000, 0.0625, 0.0625, -0.2500, -0.1875, -0.3125, 0.0000, -0.2500, -0.1250, -0.1250, 0.2500, 0.3125, 0.1250, 0.1875, 0.2500, 0.3125, 0.2500, -0.0625, -0.0625, 0.0625, 0.0000, -0.3125, -0.5000, 0.1250, -0.2500, -0.1250, 0.0625, 0.0625, -0.2500, -0.1875, -0.2500, 0.1875, -0.6250, -0.0625, 0.0625, 0.0625, 0.0000, 0.0625, 0.0625, -0.1250, -0.0625, 0.0000, 0.0000, 0.0000, -0.0625, 0.0625, 0.0625, 0.0000, 0.0000, -0.0625, 0.0000, -0.0625, -0.0625, 0.0000, 0.0625, 0.1875, 0.0000, 0.0000, -0.0625, 0.0000, 0.0625, 0.0625, 0.0000, 0.0625, -0.0625, -0.0625, 0.0000, 0.0000, 0.0000, 0.0000, 0.0000, 0.0000, 0.0000, 0.0000, 0.0000, 0.0000, 0.0000, 0.0000, 0.0000, 0.0000, 0.0000, 0.0000, 0.0000, 0.0000, 0.0625, 0.0000, 0.0000, 0.0000, 0.0000, 0.0000, -0.0625, 0.0625, 0.0000, 0.0000, 0.0000, 0.0000, 0.0000, 0.0625, 0.0000, 0.0000, -0.0625, 0.0000, -0.0625, 0.0000, 0.0000, 0.0000, 0.0000, 0.0000, 0.0000, 0.0000, 0.0000, -0.0625, 0.0000, 0.0000, 0.0000, 0.0000, 0.0625, 0.0000, 0.0000, 0.0000, 0.0000, 0.0000, 0.0625, 0.0000, 0.0000, 0.0000, 0.0000, 0.0000, 0.0000, 0.0000, 0.0000, 0.0000, 0.0000, -0.0625, -0.0625, 0.0625, 0.0625, 0.0625, 0.0000, 0.0000, 0.0000, -0.0625, -0.0625, 0.0000, 0.0000, 0.0000, 0.0000, 0.0625, 0.0625, -0.0625, 0.0625, -0.1250, -0.0625, -0.0625, -0.2500, 0.0000, 0.0000, 0.0000, 0.0000, 0.0000, -0.0625, 0.0625, -0.0625, 0.0000, 0.0000, -0.0625, 0.0625, 0.0000, 0.0625, -0.0625, 0.0000, 0.0000, -0.0625, 0.0000, 0.0000, 0.0000, 0.0000, -0.0625, 0.0000, 0.0000, 0.0000, -0.0625, 0.0000, 0.0625, 0.0000, 0.0625, -0.0625, 0.0000, 0.0000, 0.0000, 0.0000, -0.0625, 0.0000, 0.0000, 0.0000, 0.0000, 0.0000, 0.0000, 0.0000, -0.0625, 0.0000, 0.0000, 0.0000, 0.0000, 0.0000, 0.0000, 0.0625, 0.0000, 0.0000, 0.0000, 0.0000, 0.0625, 0.0000, 0.0000, 0.0000, 0.0000, 0.0000, 0.0000, 0.0000, 0.0000, 0.0000, 0.0000, -0.0625, 0.0625, 0.0000, 0.0000, 0.0000, 0.0000, 0.0625, -0.0625, 0.0625, 0.0000, 0.0000, 0.0625, -0.0625, 0.0000, -0.2500, 0.0000, -0.0625, 0.2500, -0.1250, 0.2500, -0.1250, -0.0625, 0.0625, -0.0625, 0.0000, -0.0625, 0.0000, 0.0000, 0.0000, 0.0625, 0.0000, 0.0000, -0.0625, 0.0625, 0.0000, 0.0000, 0.0000, 0.0000, 0.0000, -0.0625, 0.0000, 0.0000, 0.0625, -0.1250, 0.0000, 0.0000, -0.0625, 0.0000, 0.0000, 0.0000, -0.0625, 0.0000, 0.0000, 0.0000, 0.0625, -0.0625, 0.0000, 0.0000, 0.0000, 0.0625, -0.0625, 0.0000, -0.0625, 0.0000, -0.0625, 0.0000, 0.0000, 0.0625, 0.0625, -0.0625, 0.0625, -0.0625, -0.0625, 0.0000, 0.0625, 0.0000, -0.1875, -0.0625, 0.0625, 0.0625, 0.1875, 0.1875, 0.0625, -0.1875, 0.0625, 0.0625, 0.0000, 0.0000, -0.1250, 0.0625, -0.0625, -0.0625, 0.0000, 0.1875, 0.0000, 0.0000, 0.0000, 0.1875, -0.1250, 0.0625, 0.0625, 0.0000, -0.1250, -0.1250, 0.0625, 0.0000, -0.0625, 0.3125, 0.0625, -0.0625, -0.1250, 0.1875, 0.0625, 0.0625, 0.0000, -0.1875, -0.0625, 0.0625, 0.1875, 0.3125, -0.1250, 0.0000, 0.0625, -0.3750, -0.0625, 0.0000, 0.0000, 0.0000, 0.0000, 0.0625, 0.1250, 0.1250, 0.0625, 0.0625, 0.0625, -0.2500, 0.0625, 0.0000, 0.1875, -0.3125, -0.0625, 0.0000, 0.0000, 0.3125, 0.0000, -0.1250, 0.0625, -0.1875, 0.2500, -0.1875, 0.0625, -0.3125, 0.1250, 0.0000, 0.0000, 0.0000, -0.1250, 0.0000, -0.1250, -0.0625, 0.0000, -0.0625, 0.0000, 0.1875, 0.0000, 0.0000, -0.0625, -0.1250, 0.0000, -0.1250, 0.0625, -0.1250, 0.1250, 0.0625, 0.0000, 0.0625, 0.0000, 0.0625, 0.0000, 0.0625, -0.1875, 0.1250, -0.0625, -0.1250, -0.1875, 0.0625, -0.1250, -0.0625, 0.0000, 0.0000, -0.0625, 0.0000, 0.0000, 0.0625, -0.2500, 0.0000, 0.1250, 0.0000, 0.1875, -0.0625, 0.0000, 0.0000, -0.0625, 0.0000, 0.0625, 0.0000, 0.0625, -0.0625, -0.3125, 0.1875, -0.0625, 0.0625, -0.0625, -0.1250, 0.0625, -0.0625, 0.0625, -0.0625, 0.0000, -0.0625, -0.1250, 0.0000, -0.1250, -0.0625, -0.1250, 0.0000, 0.0000, -0.0625, -0.0625, 0.0000, 0.0625, 0.0000, 0.0000, 0.0000, 0.0625, 0.0000, 0.0000, 0.0000, 0.0625, 0.0000, 0.1875, 0.0625, 0.0000, -0.0625, 0.0000, 0.0000, 0.0000, 0.0000, -0.0625, 0.0000, -0.0625, 0.0000, 0.0000, 0.0000, 0.0000, -0.0625, 0.0000, 0.0625, -0.0625, 0.0000, 0.0625, 0.0000, 0.0000, 0.0000, 0.0000, 0.0000, 0.0000, 0.0000, 0.0000, 0.0000, 0.0000, 0.0000, 0.0625, -0.0625, 0.0000, 0.0000, 0.0000, 0.0000, 0.0000, 0.0000, 0.0000, -0.0625, 0.0000, 0.0625, -0.1250, 0.0000, 0.0000, 0.0000, 0.0000, 0.0000, 0.0000, 0.0000, 0.0000, -0.1250, -0.3125, 0.0625, 0.1250, 0.0000, 0.1250, 0.2500, -0.0625, -0.1875, -0.1250, -0.1250, -0.1875, 0.0000, 0.0000, -0.0625, -0.0625, 0.0625, 0.1250, 0.0000, -0.0625, 0.3750, 0.0000, 0.0000, -0.1250, 0.1250, -0.1875, 0.0000, 0.0000, -0.1250, 0.0000, 0.0000, 0.0000, -0.1875, -0.0625, 0.0625, -0.5625, 0.2500, -0.0625, 0.0625, -0.3750, -0.1875, 0.1875, 0.0000, 0.1875, 0.1875, 0.0000, 0.0000, 0.2500, 0.0000, 0.0625, -0.1250, 0.0000, 0.1875, 0.0000, 0.0625, 0.0000, 0.1875, 0.1875, 0.0625, 0.0625, 0.0000, 0.0000, -0.0625, 0.0000, 0.1875, 0.0000, -0.1250, -0.0625, -0.0625, 0.1250, -0.0625, 0.1250, 0.0000, -0.0625, 0.0625, 0.0000, -0.1250, 0.1250, -0.3125, 0.0000, -0.1250, 0.1250, -0.1250, -0.0625, 0.0000, 0.0625, 0.1875, -0.0625, 0.1875, 0.0000, -0.1875, 0.0000, -0.0625, 0.1250, -0.0625, 0.0000, -0.0625, -0.2500, 0.1250, 0.0625, 0.0000, -0.1875, 0.1250, 0.0625, 0.0625, -0.0625, 0.0625, -0.2500, 0.0000, 0.3125, 0.3125, -0.2500, -0.0625, -0.0625, -0.1250, 0.1875, 0.0000, 0.2500, -0.0625, -0.1250, 0.0625, 0.0000, 0.0000, 0.1250, 0.1875, 0.1875, 0.0625, 0.0625, -0.0625, 0.0000, -0.3125, 0.0000, -0.0625, 0.1250, -0.3125, -0.1875, 0.0000, 0.1250, 0.2500, 0.1250, 0.3750, 0.0000, 0.0000, 0.0625, 0.1875, 0.2500, -0.1875, -0.1250, 0.0625, 0.0000, 0.0000, -0.1875, 0.1250, -0.1250, -0.0625, -0.0625, 0.1875, -0.1875, 0.1250, 0.3750, 0.0625, 0.2500, 0.0000, 0.0625, -0.0625, 0.1875, -0.1875, -0.1250, -0.1250, -0.1250, 0.1875, -0.0625, 0.0000, 0.1875, 0.0000, 0.1250, -0.1875, 0.1875, -0.3125, 0.0625, -0.3125, -0.0625, 0.3125, -0.1875, -0.0625, -0.1250, 0.1250, 0.1250, -0.0625, 0.0625, 0.1875, -0.1250, 0.0625, 0.0625, 0.2500, -0.2500, -0.1875, 0.0625, -0.1875, 0.1875, -0.0625, 0.1875, 0.1875, 0.0000, -0.3125, 0.1250, -0.1250, 0.1250, -0.1875, 0.0625, -0.0625, -0.1875, -0.1250, 0.0000, 0.1250, 0.0625, 0.0000, -0.0625, 0.2500, 0.1250, -0.3125, -0.0625, 0.0625, -0.0625, 0.1875, -0.3125, -0.0625, -0.0625, 0.0000, 0.0625, -0.1875, 0.0625, 0.1875, -0.0625, 0.0000, 0.0000, 0.0000, -0.1250, 0.0000, -0.0625, 0.0000, 0.0000, 0.1875, 0.2500, 0.2500, -0.1250, -0.1875, -0.0625, -0.1875, -0.0625, 0.0625, -0.1250, -0.1250, 0.1875, 0.1250, -0.0625, 0.1250, 0.0000, 0.0000, 0.0000, 0.0625, 0.0000, 0.2500, -0.1250, 0.0000, -0.1875, -0.0625, -0.7500, -0.5000, -0.1250, -0.1875, 0.1875, -0.1875, 0.1250, 0.1250, 0.3125, -0.1250, 0.0625, 0.1250, 0.0625, -0.0625, 0.0625, 0.0000, 0.1250, -0.3750, 0.0000, 0.1875, -0.1875, -0.0625, -0.0625, -0.0625, 0.0000, 0.0000, -0.0625, 0.0000, 0.0000, 0.0000, -0.0625, 0.0000, -0.0625, 0.0000, -0.0625, 0.0000, 0.0000, -0.0625, 0.0000, -0.0625, 0.0000, -0.0625, 0.0000, 0.0000, -0.0625, 0.0000, 0.0000, 0.0000, -0.0625, 0.0000, 0.0000, 0.0000, -0.0625, 0.0000, 0.0000, 0.0000, 0.0000, 0.0000, 0.0000, 0.0000, 0.0000, 0.0000, 0.0000, -0.0625, 0.0000, 0.0625, 0.0000, 0.0000, 0.0000, 0.0000, 0.0000, 0.0000, 0.0000, 0.0000, -0.0625, 0.0000, 0.0000, 0.0000, 0.0000, 0.0000, 0.0000, 0.0000, 0.0000, 0.0000, 0.0000};
#endif

#endif
