//Numpy array shape [44, 32]
//Min -1.812500000000
//Max 1.312500000000
//Number of zeros 369

#ifndef W2_H_
#define W2_H_

#ifndef __SYNTHESIS__
weight2_t w2[1408];
#else
weight2_t w2[1408] = {0.0000, -0.1875, 0.3125, 0.1875, 0.3125, -0.1875, -0.2500, 0.6875, -2.5000, 0.5625, -0.1875, 0.3750, 0.3125, 1.3125, -0.0625, 0.3750, -0.1875, 0.0625, 0.0000, 0.1875, 0.1875, 0.0000, -0.7500, 0.2500, -0.0625, 0.2500, -0.1875, -0.6250, -0.3750, 0.0625, -0.5000, -1.5000, 0.0000, -0.0625, 0.0000, 0.0000, -0.0625, 0.0000, 0.0000, -0.0625, -0.2500, 0.0000, 0.0000, 0.0000, 0.0000, 0.0000, 0.0000, 0.0625, 0.0000, -0.0625, 0.0000, 0.0000, 0.0000, 0.0625, 0.0000, 0.0000, 0.0625, 0.0000, 0.0000, 0.0000, 0.0625, 0.0000, 0.0000, 0.0000, -0.1250, 0.1250, -0.0625, -0.0625, -0.0625, 0.0000, 0.1250, 0.0000, -0.0625, 0.0625, 0.0625, 0.0000, -0.0625, 0.0000, 0.0000, 0.0000, 0.0000, -0.0625, 0.0000, -0.0625, -0.0625, 0.0625, 0.0000, -0.0625, -0.0625, 0.0625, 0.0000, 0.1875, -0.1250, 0.0000, 0.1250, 0.1875, 0.1875, -0.3125, 0.0000, 0.1250, 0.1875, -0.0625, -0.1875, 0.0000, -2.7500, 0.1250, -0.2500, 0.0625, 0.1250, 0.0625, 0.8125, 0.1875, 0.0000, -0.1875, 0.0000, 0.0000, 0.2500, 0.0000, -0.2500, 0.1875, -0.2500, 0.0000, -0.1250, -0.6250, 0.0000, 0.0000, -0.2500, -0.1250, 0.0000, 0.0625, 0.0000, -0.0625, 0.0625, 0.0000, 0.0000, 0.0625, 0.8750, 0.0000, 0.0000, 0.0000, 0.0000, 0.0000, 0.0000, 0.0000, 0.0000, 0.0000, 0.0000, 0.0625, 0.0000, 0.0000, 0.0000, -0.0625, 0.0000, 0.0000, 0.0000, 0.0625, 0.0000, 0.0000, -0.0625, 0.0000, -0.0625, 0.1250, -0.0625, -0.0625, 0.0000, 0.0000, -0.0625, -0.0625, -1.1250, 0.0000, 0.0625, 0.0000, 0.0625, 0.0000, 0.1250, 0.0000, 0.0000, 0.1250, -0.0625, -0.0625, 0.0000, 0.0625, -0.0625, 0.0625, 0.0625, -0.0625, 0.0000, 0.2500, -0.1875, -0.0625, 0.1250, 0.1250, 0.0000, -0.3750, 0.0000, -0.0625, 0.1250, -0.1250, -0.1875, 0.0000, -3.5000, 0.0625, 0.0000, 0.0625, 0.0000, 0.0000, 0.0625, 0.0625, -0.0625, -0.3125, 0.1250, 0.0000, 0.0625, 0.7500, 0.9375, -0.4375, -1.1250, 0.1875, 0.6875, -0.3125, 0.0000, 0.0000, -0.3125, -0.1250, -0.0625, 0.0000, 0.0000, 0.0000, 0.0000, -0.0625, 0.0000, 0.0000, 0.3750, -0.0625, 0.0000, 0.0000, 0.0000, 0.0000, 0.0000, 0.0000, 0.0000, -0.0625, 0.0000, 0.0625, 0.0000, 0.0000, 0.0000, 0.0000, 0.1250, 0.0000, 0.0000, -0.1875, -0.0625, 0.0000, -0.0625, -0.0625, -0.0625, 0.2500, -0.0625, -0.0625, -0.0625, 0.0625, -0.0625, -0.0625, -0.5625, 0.0000, 0.0625, 0.0000, 0.0000, 0.0000, 0.0000, -0.0625, 0.0000, 0.1250, 0.0000, -0.0625, -0.0625, 0.4375, -0.0625, 0.0625, -0.1250, -0.0625, 0.0000, 0.0625, 0.0000, 0.0000, 0.2500, 0.0000, 0.0625, 0.1875, 0.0000, 0.0000, -0.0625, -0.6250, -0.0625, 0.0000, -4.5000, -0.0625, -0.0625, 0.0000, 0.0000, 0.0625, 0.0000, 0.0000, 0.0000, 0.0000, 0.0625, 0.0000, 0.0000, 0.2500, 0.0625, 0.0000, -0.6250, 0.0000, 0.0000, 0.1250, -0.1250, 0.0625, -0.0625, 0.0625, 0.0000, 0.0625, 0.0000, 0.0000, 0.0000, -0.3750, 0.0000, 0.0000, 0.2500, 0.0000, -0.0625, 0.0000, 0.0000, 0.0000, 0.0000, 0.0000, 0.0000, 0.0000, 0.0000, 0.0625, 0.0625, 0.0625, 0.0000, 0.0000, 0.0000, 0.0000, 0.0000, -0.0625, -0.0625, 0.0000, 0.0000, -0.0625, 0.0000, -0.0625, -0.0625, 0.0000, 0.0000, -0.0625, -0.0625, 0.0000, -1.2500, 0.0000, -0.0625, 0.0000, 0.0000, -0.0625, 0.0000, 0.0000, 0.0000, 0.0000, 0.0000, 0.0000, 0.0000, 0.1875, -0.0625, 0.0625, 0.1875, 0.0000, 0.0000, 0.0625, -0.1875, 0.0000, 0.0625, 0.0000, 0.0000, -0.4375, 0.0625, 0.0000, 0.0625, -0.4375, 0.2500, 0.0000, -4.6250, -0.0625, -0.0625, 0.0000, 0.0000, 0.0000, 0.0000, 0.0625, 0.0000, 0.0625, 0.0625, 0.0625, 0.0000, 0.0625, 0.0625, 0.0000, -0.0625, 0.0625, 0.0000, 0.8750, 0.1250, 0.0000, -0.1250, -0.1250, 0.0000, 0.0625, 0.0000, 0.0000, 0.0000, 0.0625, 0.0000, 0.0000, -0.0625, -0.0625, 0.0000, 0.0000, 0.0000, 0.0000, 0.0625, 0.0000, 0.0000, 0.0000, 0.0000, 0.0000, 0.0000, -0.1250, -0.0625, 0.0000, -0.8750, 0.0000, 0.0000, -0.1875, 0.0625, 0.0000, -0.0625, 0.0000, 0.0000, 0.0625, 0.0000, 0.0000, -0.0625, -0.3750, 0.0000, -0.0625, -3.3750, 0.0000, -0.1875, 0.0000, 0.0000, 0.0000, 0.0000, 0.0000, 0.0000, 0.0625, -0.0625, 0.0000, 0.0000, 0.1250, 0.0000, 0.0625, 0.1250, 0.0000, 0.0000, 0.1875, -0.0625, 0.0000, 0.0625, -0.0625, 0.1875, -0.1875, 0.1875, 0.0625, 0.0625, -0.2500, 0.2500, -0.4375, -2.0000, -0.1250, -0.0625, -0.0625, 0.0625, 0.2500, 0.1250, 0.0625, 0.0000, 0.0625, 0.0000, 0.0625, 0.2500, 0.0625, 0.1250, -0.0625, -0.2500, 0.0000, -0.2500, 0.3750, 1.0000, -0.1250, -0.1250, 0.5625, 0.0000, 0.1250, 0.0000, 0.0000, 0.0000, -0.7500, 0.0000, 0.0625, 0.1250, 0.0000, 0.0625, -0.0625, 0.0625, -0.0625, 0.0000, 0.0000, 0.0000, 0.0000, 0.0000, 0.0000, 0.3125, 0.0000, 0.0625, -0.0625, 0.0000, 0.0625, 0.0000, 0.2500, -0.1875, 0.0625, 0.0000, -0.0625, 0.0000, -0.0625, 0.0625, 0.0000, 0.0000, -0.0625, 0.0000, -0.3750, -4.7500, 0.0000, -0.1250, -0.1250, -0.0625, 0.1250, 0.0000, 0.0000, 0.0000, 0.0000, 0.0000, 0.0000, 0.0000, 0.1875, -0.0625, 0.0625, 0.0000, 0.0625, 0.0000, 0.1250, 1.2500, -0.0625, 0.0000, -0.1250, 0.1250, 0.3750, 0.3125, -0.1250, 0.1250, 0.5000, -0.1250, 0.0625, -3.0000, 0.1875, -0.0625, 0.3125, 0.0000, 0.0625, 0.1875, 0.0625, 0.0000, -0.3125, -0.1875, 0.3750, -0.5625, 0.1250, -0.1250, 0.1250, 0.0625, -0.0625, -0.1250, -0.6250, 0.1875, 0.3750, 1.5000, -0.3125, 0.0000, 0.1250, -0.0625, 0.0000, 0.0000, 0.0000, 0.0000, 0.0000, -0.1875, 0.0000, 0.0000, 0.0000, 0.0000, 0.0000, 0.0000, 0.0000, 0.0000, 0.0000, 0.0000, 0.0000, 0.0000, 0.0000, 0.0000, 0.0000, 0.0000, 0.0000, 0.0000, 0.0000, -0.2500, 0.0000, 0.0000, 0.0000, -0.0625, -0.2500, 0.0625, 0.0000, 0.0000, -0.0625, 0.0625, 0.0000, -1.0000, -0.0625, 0.0625, -0.0625, 0.0000, 0.0000, -0.0625, 0.0000, -0.0625, 0.0625, 0.0000, -0.0625, 0.0000, -0.1250, 0.0625, 0.0000, 0.0625, 0.0625, 0.0000, 0.3125, -0.5000, -0.0625, 0.0000, 0.1250, 0.1250, -0.2500, -0.5000, 0.0000, 0.0000, -0.2500, -0.1875, 0.0625, -3.8125, 0.1875, -0.1875, 0.0625, 0.0625, 0.1250, 0.3750, 0.1250, 0.4375, 0.0000, 0.0000, -0.5625, 0.3125, 0.5000, -0.3750, 0.3125, -0.3125, -0.6875, -0.0625, -0.1250, 0.1875, 0.0625, 0.1875, -0.1875, -0.0625, 0.0625, 0.0000, -0.0625, 0.0000, 0.0000, 0.0000, 0.0000, 0.4375, 0.0000, 0.0000, 0.0000, 0.0625, 0.0000, 0.0000, 0.0000, 0.0000, 0.0000, 0.0000, 0.0000, 0.0000, 0.0000, 0.0625, 0.0000, 0.0000, 0.0000, 0.0000, 0.0000, -0.0625, 0.0000, 0.0625, 0.0000, -0.0625, 0.0000, 0.1875, -0.0625, 0.0000, 0.0625, 0.1250, -0.0625, -0.7500, -0.1250, 0.0625, -0.0625, -0.0625, -0.1250, -0.0625, 0.0000, 0.0000, 0.0625, 0.0625, 0.1250, -0.1250, -0.1250, 0.1875, -0.0625, 0.1250, 0.0625, 0.0000, 0.0625, -0.4375, -0.0625, -0.1250, 0.0625, 0.1250, -0.1250, -0.1250, 0.1250, 0.0000, -0.2500, -0.1250, 0.0000, -5.5625, 0.0000, -0.1250, 0.0000, 0.0000, 0.0000, 0.1250, 0.0000, 0.3750, -0.1250, 0.1875, -0.1250, 0.0625, 0.0000, -0.1250, 0.0000, -0.3125, 0.3750, 0.0000, 0.1250, 0.1250, -0.0625, 0.2500, -0.1875, 0.0000, 0.0000, 0.0000, 0.0000, 0.0000, 0.0000, 0.0000, 0.0000, -0.3125, 0.0000, 0.0000, 0.0625, 0.0000, 0.0000, 0.0000, 0.0000, 0.0000, 0.0625, 0.0000, 0.0000, 0.0000, 0.0000, 0.0000, 0.0000, 0.0000, 0.0000, 0.0000, -0.0625, 0.0000, 0.0000, 0.0625, -0.0625, -0.1250, -0.0625, 0.1250, -0.0625, 0.0000, 0.1250, 0.1250, 0.0000, -1.1250, 0.0000, 0.0000, 0.0000, -0.0625, -0.0625, -0.0625, 0.0000, 0.0625, 0.0625, -0.0625, 0.1250, 0.0000, 0.0000, 0.0625, 0.0625, 0.1875, -0.1250, 0.0000, 0.0625, -0.0625, 0.0000, -0.1250, 0.0000, 0.0625, -0.1250, -0.0625, 0.0625, -0.0625, -0.1250, 0.0000, 0.0000, -6.0625, -0.0625, 0.0000, 0.0000, -0.0625, 0.0000, 0.0625, 0.0000, 0.0625, -0.1250, 0.1250, -0.0625, 0.0625, 0.1250, 0.0000, 0.1250, -0.5000, 0.0625, 0.0000, 0.1250, 0.2500, 0.0625, 0.1250, -0.2500, 0.0000, 0.0000, 0.0000, 0.0000, 0.0000, -0.0625, 0.0000, 0.0000, -0.2500, 0.0000, 0.0000, 0.0000, 0.0000, 0.0000, 0.0000, 0.0000, 0.0000, 0.0000, -0.0625, 0.0000, 0.0000, 0.0000, 0.0000, 0.0000, -0.2500, 0.0000, 0.0000, -0.1250, 0.0000, 0.0000, 0.0000, 0.0000, -0.0625, 0.0000, 0.0625, -0.0625, 0.0000, 0.0625, 0.0625, 0.0000, -3.3125, 0.0000, 0.0000, 0.0000, 0.0000, 0.0000, 0.0000, 0.0000, 0.0000, 0.0625, -0.0625, 0.0000, -0.0625, 0.0000, 0.0000, -0.0625, -0.4375, -0.0625, -0.0625, 0.0000, -0.0625, 0.0000, -0.0625, 0.0625, -0.0625, 0.0000, -0.1250, 0.1875, -0.0625, -0.1875, -0.2500, -0.6875, -1.7500, -0.3125, 0.8125, 0.9375, -0.1875, -0.1250, 0.3125, -0.3125, 0.0000, -0.7500, 0.2500, -0.0625, 0.1250, -0.2500, 1.4375, -0.1250, -0.2500, 0.1250, -0.1875, -0.6875, -0.6250, 0.4375, -0.3125, -0.0625, 0.0000, -0.0625, 0.0000, 0.0000, 0.0000, 0.0000, 0.0000, 0.0000, -0.3125, 0.0000, 0.0000, 0.0000, -0.0625, 0.0000, 0.0000, 0.0000, 0.0000, 0.0000, 0.0000, 0.0000, 0.0000, -0.0625, 0.0000, 0.0000, 0.0000, 0.0000, 0.0000, 0.4375, 0.0000, 0.0000, 0.0000, 0.0000, 0.0000, -0.0625, 0.0000, 0.0000, -0.0625, 0.0625, 0.0000, -0.0625, -0.8750, 0.0000, 0.0000, 0.0000, 0.0000, -0.0625, 0.0000, 0.0625, -0.0625, 0.0000, 0.0000, 0.0000, -0.0625, 0.0625, 0.0000, 0.0625, 0.0625, 0.0000, -0.0625, 0.0625, 0.0625, 0.0000, 0.1250, 0.0625, 0.1875, 1.3750, -0.0625, 0.0625, 0.3750, -1.0000, 0.5625, -0.4375, -1.2500, -0.0625, 0.0000, -0.2500, -0.1250, -0.2500, 0.3125, 0.2500, 0.1875, 0.3125, 0.1250, -0.0625, 0.0625, -0.1250, 0.2500, 0.3125, 0.0625, -0.7500, 0.1875, -0.4375, -0.3750, 0.0000, 1.2500, 1.0625, 0.0000, -0.1250, 0.0000, 0.0000, 0.0000, -1.1875, 0.0000, 0.0000, 0.1875, 0.0000, 0.0000, 0.0000, 0.0000, 0.0625, 0.0000, 0.0625, 0.0000, 0.0000, 0.0000, 0.0000, -0.0625, 0.0000, 0.0625, -0.3125, 0.0000, 0.0000, -0.0625, 0.0000, 0.1250, 0.0000, 0.0625, 0.0000, 0.0000, 1.2500, 0.0000, 0.0000, 0.0000, 0.0000, 0.0000, -0.1250, -0.0625, 0.0000, 0.0000, 0.0625, -0.0625, 0.0625, 0.0000, 0.0625, 0.0625, -0.0625, -0.0625, 0.0000, -0.0625, 0.0625, -0.0625, 0.0000, -0.1875, -0.5000, -0.0625, -0.0625, -0.0625, 0.0000, 1.0625, 0.1250, 0.1250, -0.3750, -0.3750, -0.0625, 0.0000, -0.3750, 0.0625, 0.4375, 1.0000, -0.1250, 0.4375, 0.1875, -0.0625, -0.1250, -0.1250, -0.1250, -0.1250, 0.0000, -0.1875, -0.3125, 0.1250, 0.1250, 0.2500, 0.1875, 0.2500, -0.5625, 0.1250, 0.5000, 0.5000, 0.0000, 0.3125, -0.1875, 0.0000, -1.1250, -0.3125, 0.0625, 0.0000, -0.1250, 0.0000, -0.1250, 0.4375, 0.0625, -0.3125, 0.0625, 0.0000, -0.3125, 0.1250, 0.0000, 0.0000, 0.2500, 0.0000, -0.1875, 0.5000, 0.1250, 0.1875, 0.0000, -0.5000, 0.1875, -0.0625, 0.3125, 0.0000, 0.0000, 0.0625, -0.0625, 0.0000, -0.6250, 0.0625, 0.0000, 0.0000, 0.1875, -0.0625, 0.0625, 0.5000, -0.2500, -0.0625, -0.0625, -0.0625, 0.4375, -0.0625, 0.0625, -0.1250, 0.1875, 0.0625, -0.0625, 0.0625, 0.0625, -0.0625, 0.3125, 0.2500, -0.3125, 0.0625, 0.0625, -0.1250, 0.0000, 0.2500, -0.1250, 0.1250, 0.3125, -0.1875, 0.1250, 0.0625, -1.5000, -0.0625, 0.1875, 1.1250, 0.0000, 0.0625, 0.0625, 0.0625, -0.1875, 0.0000, 0.0625, 0.0625, -0.3125, 0.0625, 0.1250, 0.3125, 0.1250, 0.4375, -0.1875, 0.1875, 0.0625, 0.0000, -1.0000, 0.3750, -0.0625, 0.0625, -2.0000, 0.0000, 0.0000, -0.3125, 0.0625, 0.0000, 0.9375, 0.2500, -0.0625, 0.3125, 0.0625, 0.0000, -0.0625, -0.0625, 0.1250, 0.3125, 0.0000, 0.1875, 0.3750, 0.1875, 0.0000, -0.1250, 0.0000, 0.0000, -0.3125, 0.0000, 0.0000, 0.0000, -0.4375, 0.2500, -0.1250, 0.0625, -0.5625, 0.0625, 0.3125, -0.0625, 0.0000, 0.0000, -0.0625, -0.0625, -0.3125, 0.8750, -0.1250, 0.3125, 0.3125, 0.0000, -0.1875, 0.0000, 0.0625, 0.0000, 0.0000, 0.1250, 0.2500, 0.1250, 0.2500, 0.3125, -0.0625, 0.4375, -0.1875, -0.0625, -0.7500, -0.1875, 0.0000, 0.3125, -0.5000, -0.1250, -0.4375, 0.8125, 0.1875, 0.0625, -1.0625, -0.3125, -0.5625, -2.3125, 0.2500, -0.1875, -0.1875, 0.0625, 0.0000, -0.3750, 0.3125, -0.2500, 0.8750, 0.6875, 0.5000, -0.1875, 0.2500, -0.2500, 0.8750, -0.8125, 0.3750, -0.1250, -0.1875, -0.3125, -0.0625, -0.0625, 1.0000, -0.1875, -0.1250, 0.0000, 0.0000, 0.0000, 0.0000, -0.0625, 0.0000, -0.5625, 0.0000, 0.0000, 0.0000, -0.0625, 0.0000, 0.0625, 0.0000, 0.0000, 0.0000, 0.0000, 0.0000, 0.0000, 0.0000, 0.0000, 0.0000, 0.0000, 0.0625, 0.0625, 0.0000, -0.5000, 0.0000, 0.0000, 0.0625};
#endif

#endif
